<?xml version="1.0" encoding="ISO-8859-1"?>
<smile version="1.0" id="Sub0" numsamples="1000" discsamples="10000">
	<nodes>
		<cpt id="K">
			<state id="x1" />
			<state id="x2" />
			<state id="x3" />
			<probabilities>0.05909695 0.23439575 0.7065073</probabilities>
		</cpt>
		<cpt id="P">
			<state id="x1" />
			<state id="x2" />
			<state id="x3" />
			<probabilities>0.06746348000000001 0.37025232 0.5622842</probabilities>
		</cpt>
		<cpt id="V">
			<state id="x1" />
			<state id="x2" />
			<state id="x3" />
			<probabilities>0.81088977 0.15391766 0.03519256</probabilities>
		</cpt>
		<cpt id="L">
			<state id="x1" />
			<state id="x2" />
			<state id="x3" />
			<probabilities>0.00172643 0.01009296 0.98818061</probabilities>
		</cpt>
		<cpt id="Y">
			<state id="x1" />
			<state id="x2" />
			<state id="x3" />
			<parents>L P</parents>
			<probabilities>0.3333333 0.3333333 0.3333333 0.3333333 0.3333333 0.3333333 0.6491228 0.1754386 0.1754386 0.1754386 0.6491228 0.1754386 0.56214689 0.40960452 0.02824859 0.13553114 0.03663004 0.82783883 0.15273133 0.00222965 0.84503902 0.82653392 0.04083698 0.13262911 0.00026472 0.31189115 0.68784413</probabilities>
		</cpt>
		<cpt id="S">
			<state id="x1" />
			<state id="x2" />
			<state id="x3" />
			<parents>Y</parents>
			<probabilities>0.2169468 0.1640056 0.6190476 0.54342317 0.42524764 0.03132919 0.0009001700000000001 0.26582051 0.73327932</probabilities>
		</cpt>
		<cpt id="Z">
			<state id="x1" />
			<state id="x2" />
			<state id="x3" />
			<parents>S</parents>
			<probabilities>0.3976519 0.1932108 0.4091373 0.02127303 0.6001675 0.37855946 0.04896867 0.77806645 0.17296489</probabilities>
		</cpt>
		<cpt id="H">
			<state id="x1" />
			<state id="x2" />
			<state id="x3" />
			<parents>K P V Y Z</parents>
			<probabilities>0.01317523 0.97364954 0.01317523 0.01317523 0.97364954 0.01317523 0.97364954 0.01317523 0.01317523 0.3333333 0.3333333 0.3333333 0.3333333 0.3333333 0.3333333 0.3333333 0.3333333 0.3333333 0.3333333 0.3333333 0.3333333 0.20108844 0.79619048 0.00272109 0.97364954 0.01317523 0.01317523 0.3333333 0.3333333 0.3333333 0.3333333 0.3333333 0.3333333 0.3333333 0.3333333 0.3333333 0.3333333 0.3333333 0.3333333 0.3333333 0.3333333 0.3333333 0.3333333 0.3333333 0.3333333 0.3333333 0.3333333 0.3333333 0.00672043 0.98655914 0.00672043 0.3333333 0.3333333 0.3333333 0.3333333 0.3333333 0.3333333 0.3333333 0.3333333 0.3333333 0.3333333 0.3333333 0.3333333 0.3333333 0.3333333 0.3333333 0.3333333 0.3333333 0.3333333 0.3333333 0.3333333 0.3333333 0.3333333 0.3333333 0.3333333 0.3333333 0.3333333 0.3333333 0.3333333 0.3333333 0.3333333 0.74575696 0.25084861 0.00339443 0.7489311 0.1878741 0.0631948 0.88636019 0.00151722 0.11212259 0.9909788000000001 0.0045106 0.0045106 0.01317523 0.97364954 0.01317523 0.00672043 0.98655914 0.00672043 0.3333333 0.3333333 0.3333333 0.9909788000000001 0.0045106 0.0045106 0.01317523 0.97364954 0.01317523 0.01317523 0.97364954 0.01317523 0.49663978 0.00672043 0.49663978 0.3333333 0.3333333 0.3333333 0.3333333 0.3333333 0.3333333 0.3333333 0.3333333 0.3333333 0.3333333 0.3333333 0.3333333 0.3333333 0.3333333 0.3333333 0.00672043 0.00672043 0.98655914 0.01317523 0.01317523 0.97364954 0.3333333 0.3333333 0.3333333 0.00672043 0.00672043 0.98655914 0.3333333 0.3333333 0.3333333 0.3333333 0.3333333 0.3333333 0.3333333 0.3333333 0.3333333 0.3333333 0.3333333 0.3333333 0.3333333 0.3333333 0.3333333 0.3333333 0.3333333 0.3333333 0.3333333 0.3333333 0.3333333 0.3333333 0.3333333 0.3333333 0.3333333 0.3333333 0.3333333 0.3333333 0.3333333 0.3333333 0.00272109 0.99455782 0.00272109 0.54466393 0.45409368 0.00124239 0.14397039 0.00194818 0.85408143 0.98655914 0.00672043 0.00672043 0.20526334 0.02596536 0.7687713000000001 0.664396 0.00227066 0.33333333 0.3333333 0.3333333 0.3333333 0.3333333 0.3333333 0.3333333 0.3333333 0.3333333 0.3333333 0.3333333 0.3333333 0.3333333 0.98655914 0.00672043 0.00672043 0.39945578 0.59782313 0.00272109 0.01317523 0.01317523 0.97364954 0.82992734 0.167802 0.00227066 0.3333333 0.3333333 0.3333333 0.3333333 0.3333333 0.3333333 0.3333333 0.3333333 0.3333333 0.3333333 0.3333333 0.3333333 0.3333333 0.3333333 0.3333333 0.01317523 0.97364954 0.01317523 0.3333333 0.3333333 0.3333333 0.3333333 0.3333333 0.3333333 0.00672043 0.00672043 0.98655914 0.3333333 0.3333333 0.3333333 0.3333333 0.3333333 0.3333333 0.49663978 0.00672043 0.49663978 0.01317523 0.97364954 0.01317523 0.3333333 0.3333333 0.3333333 0.3333333 0.3333333 0.3333333 0.3333333 0.3333333 0.3333333 0.3333333 0.3333333 0.3333333 0.1181679 0.3528938 0.5289383 0.3333333 0.1121226 0.5545441 0.3333333 0.3333333 0.3333333 0.01317523 0.97364954 0.01317523 0.3333333 0.3333333 0.3333333 0.3333333 0.3333333 0.3333333 0.3333333 0.3333333 0.3333333 0.3333333 0.3333333 0.3333333 0.3333333 0.3333333 0.3333333 0.167802 0.00227066 0.82992734 0.3333333 0.3333333 0.3333333 0.3333333 0.3333333 0.3333333 0.3333333 0.3333333 0.3333333 0.3333333 0.3333333 0.3333333 0.3333333 0.3333333 0.3333333 0.3333333 0.3333333 0.3333333 0.3333333 0.3333333 0.3333333 0.01317523 0.01317523 0.97364954 0.6621561 0.3333333 0.0045106 0.01317523 0.01317523 0.97364954 0.71354065 0.00065193 0.28580742 0.62874065 0.00014136 0.37111799 0.00040297 0.73480819 0.26478885 0.97364954 0.01317523 0.01317523 0.00672043 0.00672043 0.98655914 0.3333333 0.6621561 0.0045106 0.3333333 0.3333333 0.3333333 0.00085514 0.93595006 0.0631948 0.3333333 0.6621561 0.0045106 0.2508486 0.4983028 0.2508486 0.00091199 0.99817601 0.00091199 0.2508486 0.4983028 0.2508486 0.3333333 0.3333333 0.3333333 0.0045106 0.9909788000000001 0.0045106 0.3333333 0.3333333 0.3333333 0.3333333 0.3333333 0.3333333 0.0045106 0.3333333 0.6621561 0.3333333 0.3333333 0.3333333 0.49663978 0.00672043 0.49663978 0.71205922 0.00194818 0.2859926 0.3333333 0.3333333 0.3333333 0.3333333 0.3333333 0.3333333 0.3333333 0.3333333 0.3333333 0.3333333 0.3333333 0.3333333 0.3333333 0.3333333 0.3333333 0.3333333 0.3333333 0.3333333 0.97364954 0.01317523 0.01317523 0.3333333 0.3333333 0.3333333 0.3333333 0.3333333 0.3333333 0.97364954 0.01317523 0.01317523 0.6357979 0.1821011 0.1821011 0.69651679 0.30306805 0.00041516 0.03490624 0.00047234 0.96462142 0.82992734 0.167802 0.00227066 0.827446 0.1724595 9.458000000000001e-005 0.33333333 0.02596536 0.64070131 0.3333333 0.3333333 0.3333333 0.3333333 0.3333333 0.3333333 0.3333333 0.3333333 0.3333333 0.0045106 0.3333333 0.6621561 0.0045106 0.0045106 0.9909788000000001 0.2859926 0.1439704 0.570037 0.3333333 0.3333333 0.3333333 0.3887622 0.444191 0.1670468 0.00136612 0.79808743 0.20054645 0.3333333 0.3333333 0.3333333 0.3333333 0.3333333 0.3333333 0.3333333 0.3333333 0.3333333 0.01317523 0.97364954 0.01317523 0.3333333 0.6621561 0.0045106 0.00672043 0.00672043 0.98655914 0.01317523 0.97364954 0.01317523 0.2508486 0.4983028 0.2508486 0.97364954 0.01317523 0.01317523 0.3333333 0.3333333 0.3333333 0.00151722 0.4439387 0.55454408 0.6621561 0.0045106 0.3333333 0.01317523 0.97364954 0.01317523 0.3333333 0.3333333 0.3333333 0.3333333 0.3333333 0.3333333 0.9909788000000001 0.0045106 0.0045106 0.25006119 0.67831791 0.07162089000000001 0.00072041 0.21079173 0.78848786 0.01317523 0.97364954 0.01317523 0.00672043 0.00672043 0.98655914 0.0045106 0.6621561 0.3333333 0.3333333 0.3333333 0.3333333 0.3333333 0.3333333 0.3333333 0.3333333 0.3333333 0.3333333 0.01317523 0.01317523 0.97364954 0.38445356 0.00105186 0.61449458 0.00672043 0.00672043 0.98655914 0.3333333 0.3333333 0.3333333 0.3333333 0.3333333 0.3333333 0.3333333 0.3333333 0.3333333 0.3333333 0.3333333 0.3333333 0.3333333 0.3333333 0.3333333 0.3333333 0.3333333 0.3333333 0.3333333 0.3333333 0.3333333 0.01317523 0.97364954 0.01317523 0.3333333 0.3333333 0.3333333 0.74967052 0.17320365 0.07712584 0.2007498 0.4233441 0.375906 0.3421021 0.3771772 0.2807207 0.00339443 0.74575696 0.25084861 0.42801481 0.00194818 0.57003702 0.4993169 0.3001366 0.2005464 0.49663978 0.49663978 0.00672043 0.6978302 0.1699382 0.1322316 0.90801593 0.04599203 0.04599203 0.1260662 0.1260662 0.7478676 0.00026875 0.7055819800000001 0.29414926 0.1203506 0.2002191 0.6794303 0.01317523 0.01317523 0.97364954 0.0045106 0.9909788000000001 0.0045106 0.00672043 0.98655914 0.00672043 0.97364954 0.01317523 0.01317523 0.00194818 0.42801481 0.57003702 0.00272109 0.20108844 0.79619048 0.3994558 0.2010884 0.3994558 0.45409368 0.45409368 0.09181265 0.20108844 0.79619048 0.00272109 0.3333333 0.3333333 0.3333333 0.3333333 0.3333333 0.3333333 0.3333333 0.3333333 0.3333333 0.3333333 0.3333333 0.3333333 0.01317523 0.01317523 0.97364954 0.3333333 0.3333333 0.3333333 0.3333333 0.3333333 0.3333333 0.01317523 0.01317523 0.97364954 0.3333333 0.3333333 0.3333333 0.04024123 0.9594846500000001 0.00027412 0.88977101 0.06011244 0.05011655 0.64758032 0.26139728 0.09102241 0.5413101 0.291738 0.166952 0.00249045 0.56263038 0.43487917 0.14184985 0.00756273 0.85058742 0.3333333 0.3333333 0.3333333 0.3333333 0.3333333 0.3333333 0.3333333 0.3333333 0.3333333 0.5989071 0.39972678 0.00136612 0.11816791 0.82234565 0.05948644 0.08041632 0.32002191 0.5995617600000001 0.3333333 0.4988647 0.167802 0.05348688 0.65315785 0.29335527 0.3077328 0.5765381000000001 0.115729 0.3333333 0.3333333 0.3333333 0.3333333 0.3333333 0.3333333 0.3333333 0.3333333 0.3333333 0.00339443 0.00339443 0.9932111300000001 0.00339443 0.9932111300000001 0.00339443 0.00339443 0.74575696 0.25084861 0.97364954 0.01317523 0.01317523 0.00113921 0.74857599 0.2502848 0.3994558 0.2010884 0.3994558</probabilities>
		</cpt>
		<cpt id="M">
			<state id="x1" />
			<state id="x2" />
			<state id="x3" />
			<parents>H K</parents>
			<probabilities>0.08376661000000001 0.7700751 0.14615829 0.04656863 0.43666151 0.51676987 0.5535031 0.1513563 0.2951406 0.12812161 0.80238871 0.06948969000000001 0.4148551 0.1702899 0.4148551 0.37441658 0.59321947 0.03236395 0.86548411 0.12712491 0.00739098 0.5462638 0.0149918 0.4387444 0.35368164 0.02040941 0.62590895</probabilities>
		</cpt>
		<cpt id="B">
			<state id="x1" />
			<state id="x2" />
			<state id="x3" />
			<parents>Y</parents>
			<probabilities>0.6165266 0.1829132 0.2005602 0.1785303 0.3381709 0.4832988 0.5380322 0.1070303 0.3549374</probabilities>
		</cpt>
		<cpt id="X">
			<state id="x1" />
			<state id="x2" />
			<state id="x3" />
			<parents>B Y</parents>
			<probabilities>0.3013024 0.3565046 0.3421929 0.21333333 0.06236559 0.72430108 0.15715799 0.74290335 0.09993865 0.5469627 0.1817254 0.2713119 0.00840145 0.86671208 0.12488647 0.37370339 0.61592375 0.01037286 0.0211825 0.93249534 0.04632216 0.70082618 0.2847156 0.01445821 0.98233156 0.00312791 0.01454054</probabilities>
		</cpt>
		<cpt id="A">
			<state id="x1" />
			<state id="x2" />
			<state id="x3" />
			<parents>M X Y</parents>
			<probabilities>0.39478076 0.55454408 0.05067516 0.0145205 0.98388384 0.00159566 0.69484594 0.2637535 0.04140056 0.6902046 0.29422415 0.01557125 0.4413951 0.2561464 0.3024585 0.01558842 0.01558842 0.96882317 0.00144613 0.30600145 0.69255242 0.6216629 0.1582761 0.220061 0.3048072 0.3048072 0.3903856 0.03350867 0.1124099 0.85408143 0.76257493 0.23481887 0.0026062 0.0007946 0.30973381 0.68947159 0.1303258 0.6562998 0.2133743 0.04315933 0.94131696 0.01552371 0.4599608 0.53933921 0.0006999900000000001 0.91450412 0.00201167 0.08348421 0.07484769 0.46257615 0.46257615 0.0699187 0.1357724 0.7943089 0.4699928 0.3411424 0.1888648 0.37901861 0.00211506 0.61886633 0.94122526 0.02458822 0.03418651 0.8730778 0.0203454 0.1065768 0.05744777 0.13101726 0.81153497 0.78308254 0.16112453 0.05579293 0.00183251 0.99633498 0.00183251 0.04428224 0.00486618 0.95085158 0.88969697 0.00606061 0.10424242</probabilities>
		</cpt>
		<cpt id="C">
			<state id="x1" />
			<state id="x2" />
			<state id="x3" />
			<parents>Y</parents>
			<probabilities>0.4955182 0.285014 0.2194678 0.47707901 0.01266989 0.51025109 0.03330633 0.0009001700000000001 0.9657935</probabilities>
		</cpt>
		<cpt id="D">
			<state id="x1" />
			<state id="x2" />
			<state id="x3" />
			<parents>C Y</parents>
			<probabilities>0.619088 0.00094215 0.37996985 0.23193304 0.69258007 0.07548688000000001 0.59279279 0.37387387 0.03333333 0.2935299 0.2581491 0.448321 0.06060606 0.55151515 0.38787879 0.3333333 0.3333333 0.3333333 0.1514571 0.0308445 0.8176984000000001 0.241234 0.5053424 0.2534236 0.00953801 0.40295772 0.5875042700000001</probabilities>
		</cpt>
		<cpt id="E">
			<state id="x1" />
			<state id="x2" />
			<state id="x3" />
			<parents>L Y</parents>
			<probabilities>0.1754386 0.6491228 0.1754386 0.3333333 0.3333333 0.3333333 0.3333333 0.3333333 0.3333333 0.2601626 0.3699187 0.3699187 0.75520833 0.19270833 0.05208333 0.4796748 0.3699187 0.1504065 0.38277217 0.00686651 0.61036132 0.69892977 0.20326537 0.09780485999999999 0.7918974 0.1383619 0.0697407</probabilities>
		</cpt>
		<cpt id="F">
			<state id="x1" />
			<state id="x2" />
			<state id="x3" />
			<parents>M Z</parents>
			<probabilities>0.47795217 0.00373692 0.51831091 0.01125286 0.05011449 0.93863265 0.1451591 0.6629378 0.191903 0.14674797 0.01504065 0.83821138 0.82877535 0.05413045 0.1170942 0.03411391 0.08875398 0.87713212 0.00560224 0.94341737 0.05098039 0.04156276 0.74140407 0.21703317 0.67900721 0.07626179 0.244731</probabilities>
		</cpt>
		<cpt id="G">
			<state id="x1" />
			<state id="x2" />
			<state id="x3" />
			<parents>D K</parents>
			<probabilities>0.24397163 0.09078014 0.66524823 0.00345781 0.7316735800000001 0.2648686 0.9098559000000001 0.05785211 0.032292 0.17252002 0.78804683 0.03943315 0.1580702 0.1296491 0.7122807 0.5526197000000001 0.2124076 0.2349727 0.05426357 0.07036373999999999 0.87537269 0.0346908 0.96393802 0.00137118 0.20632834 0.718687 0.07498466</probabilities>
		</cpt>
		<cpt id="I">
			<state id="x1" />
			<state id="x2" />
			<state id="x3" />
			<parents>Z</parents>
			<probabilities>0.15648028 0.80017339 0.04334634 0.24052591 0.758771 0.00070309 0.3120462 0.1917492 0.4962046</probabilities>
		</cpt>
		<cpt id="J">
			<state id="x1" />
			<state id="x2" />
			<state id="x3" />
			<parents>M Y</parents>
			<probabilities>0.98765885 0.01111926 0.0012219 0.03758263 0.33843248 0.62398489 0.0323576 0.00308565 0.96455675 0.1174134 0.1217032 0.7608834 0.00250062 0.47511878 0.5223806 0.6334254 0.238519 0.1280556 0.1259003 0.5459522 0.3281475 0.33574685 0.65433092 0.009922230000000001 0.31853967 0.6525651 0.02889523</probabilities>
		</cpt>
		<cpt id="N">
			<state id="x1" />
			<state id="x2" />
			<state id="x3" />
			<parents>K</parents>
			<probabilities>0.85692884 0.12883895 0.01423221 0.00528801 0.82625118 0.16846081 0.03051378 0.31359649 0.65588972</probabilities>
		</cpt>
		<cpt id="W">
			<state id="x1" />
			<state id="x2" />
			<state id="x3" />
			<parents>L</parents>
			<probabilities>0.2564103 0.4871795 0.2564103 0.08333333 0.20175439 0.71491228 0.00044797 0.80517852 0.19437352</probabilities>
		</cpt>
		<cpt id="O">
			<state id="x1" />
			<state id="x2" />
			<state id="x3" />
			<parents>W</parents>
			<probabilities>0.2564103 0.2564103 0.4871795 0.54487499 0.43860524 0.01651976 0.83599291 0.10992908 0.05407801</probabilities>
		</cpt>
		<cpt id="Q">
			<state id="x1" />
			<state id="x2" />
			<state id="x3" />
			<parents>E Y</parents>
			<probabilities>0.61358343 0.01777614 0.36864043 0.75752582 0.23247638 0.009997799999999999 0.00243337 0.85449222 0.14307441 0.03663004 0.13553114 0.82783883 0.5541714 0.1260853 0.3197433 0.68378263 0.31407788 0.00213949 0.3832179 0.1379523 0.4788299 0.02908805 0.41116352 0.55974843 0.5667517 0.03869048 0.39455782</probabilities>
		</cpt>
		<cpt id="R">
			<state id="x1" />
			<state id="x2" />
			<state id="x3" />
			<parents>L M W</parents>
			<probabilities>0.3333333 0.3333333 0.3333333 0.3333333 0.3333333 0.3333333 0.3333333 0.3333333 0.3333333 0.3333333 0.3333333 0.3333333 0.3333333 0.3333333 0.3333333 0.3333333 0.3333333 0.3333333 0.3333333 0.3333333 0.3333333 0.81981982 0.09009009 0.09009009 0.3333333 0.3333333 0.3333333 0.09009009 0.09009009 0.81981982 0.05208333 0.05208333 0.89583333 0.01474926 0.01474926 0.97050147 0.3333333 0.3333333 0.3333333 0.09009009 0.81981982 0.09009009 0.02824859 0.48587571 0.48587571 0.3333333 0.3333333 0.3333333 0.81981982 0.09009009 0.09009009 0.2091954 0.02298851 0.76781609 0.3333333 0.3333333 0.3333333 0.1663028 0.3150225 0.5186747 0.00067326 0.8895846 0.10974214 0.3333333 0.3333333 0.3333333 0.06277531 0.35869815 0.57852654 0.6588849 0.1670942 0.1740209 0.3333333 0.3333333 0.3333333 0.24435956 0.7554532000000001 0.00018723 0.02023353 0.35060781 0.62915867</probabilities>
		</cpt>
		<cpt id="T">
			<state id="x1" />
			<state id="x2" />
			<state id="x3" />
			<parents>I L Y</parents>
			<probabilities>0.81981982 0.09009009 0.09009009 0.3333333 0.3333333 0.3333333 0.3333333 0.3333333 0.3333333 0.81981982 0.09009009 0.09009009 0.3333333 0.3333333 0.3333333 0.81981982 0.09009009 0.09009009 0.4412767 0.1546074 0.4041159 0.09477227000000001 0.22257284 0.68265489 0.00038656 0.04735398 0.95225946 0.3333333 0.3333333 0.3333333 0.3333333 0.3333333 0.3333333 0.3333333 0.3333333 0.3333333 0.01937984 0.33333333 0.64728682 0.02298851 0.3954023 0.5816092000000001 0.94350282 0.02824859 0.02824859 0.05165499 0.94603513 0.00230988 0.3283651 0.115972 0.5556629 0.01592321 0.77114041 0.21293639 0.3333333 0.3333333 0.3333333 0.3333333 0.3333333 0.3333333 0.3333333 0.3333333 0.3333333 0.09009009 0.81981982 0.09009009 0.09009009 0.09009009 0.81981982 0.63003663 0.03663004 0.33333333 0.07565827 0.1129125 0.81142923 0.4653535 0.3521934 0.1824532 0.5867562200000001 0.39145785 0.02178593</probabilities>
		</cpt>
		<cpt id="U">
			<state id="x1" />
			<state id="x2" />
			<state id="x3" />
			<parents>I M</parents>
			<probabilities>0.1514731 0.1306494 0.7178775 0.3593879 0.3593879 0.2812242 0.4470175 0.3617544 0.1912281 0.81068593 0.18866328 0.0006507900000000001 0.00877389 0.19949439 0.79173173 0.05657529 0.7667064 0.17671832 0.04750069 0.01021817 0.94228114 0.56526611 0.4140056 0.02072829 0.02306717 0.97439797 0.00253485</probabilities>
		</cpt>
	</nodes>
	<extensions>
		<genie version="1.0" app="GeNIe 2.0.5079.0" name="Project" faultnameformat="nodestate">
			<node id="K">
				<name>K</name>
				<interior color="e5f6f7" />
				<outline color="0000bb" />
				<font color="000000" name="Arial" size="8" />
				<position>468 350 544 386</position>
			</node>
			<node id="P">
				<name>P</name>
				<interior color="e5f6f7" />
				<outline color="0000bb" />
				<font color="000000" name="Arial" size="8" />
				<position>647 14 723 50</position>
			</node>
			<node id="V">
				<name>V</name>
				<interior color="e5f6f7" />
				<outline color="0000bb" />
				<font color="000000" name="Arial" size="8" />
				<position>979 494 1055 530</position>
			</node>
			<node id="L">
				<name>L</name>
				<interior color="e5f6f7" />
				<outline color="0000bb" />
				<font color="000000" name="Arial" size="8" />
				<position>322 356 398 392</position>
			</node>
			<node id="Y">
				<name>Y</name>
				<interior color="e5f6f7" />
				<outline color="0000bb" />
				<font color="000000" name="Arial" size="8" />
				<position>955 24 1031 60</position>
			</node>
			<node id="S">
				<name>S</name>
				<interior color="e5f6f7" />
				<outline color="0000bb" />
				<font color="000000" name="Arial" size="8" />
				<position>739 565 815 601</position>
			</node>
			<node id="Z">
				<name>Z</name>
				<interior color="e5f6f7" />
				<outline color="0000bb" />
				<font color="000000" name="Arial" size="8" />
				<position>15 277 91 313</position>
			</node>
			<node id="H">
				<name>H</name>
				<interior color="e5f6f7" />
				<outline color="0000bb" />
				<font color="000000" name="Arial" size="8" />
				<position>770 89 846 125</position>
			</node>
			<node id="M">
				<name>M</name>
				<interior color="e5f6f7" />
				<outline color="0000bb" />
				<font color="000000" name="Arial" size="8" />
				<position>667 302 743 338</position>
			</node>
			<node id="B">
				<name>B</name>
				<interior color="e5f6f7" />
				<outline color="0000bb" />
				<font color="000000" name="Arial" size="8" />
				<position>279 21 355 57</position>
			</node>
			<node id="X">
				<name>X</name>
				<interior color="e5f6f7" />
				<outline color="0000bb" />
				<font color="000000" name="Arial" size="8" />
				<position>627 106 703 142</position>
			</node>
			<node id="A">
				<name>A</name>
				<interior color="e5f6f7" />
				<outline color="0000bb" />
				<font color="000000" name="Arial" size="8" />
				<position>5 79 81 115</position>
			</node>
			<node id="C">
				<name>C</name>
				<interior color="e5f6f7" />
				<outline color="0000bb" />
				<font color="000000" name="Arial" size="8" />
				<position>533 536 609 572</position>
			</node>
			<node id="D">
				<name>D</name>
				<interior color="e5f6f7" />
				<outline color="0000bb" />
				<font color="000000" name="Arial" size="8" />
				<position>12 405 88 441</position>
			</node>
			<node id="E">
				<name>E</name>
				<interior color="e5f6f7" />
				<outline color="0000bb" />
				<font color="000000" name="Arial" size="8" />
				<position>648 430 724 466</position>
			</node>
			<node id="F">
				<name>F</name>
				<interior color="e5f6f7" />
				<outline color="0000bb" />
				<font color="000000" name="Arial" size="8" />
				<position>243 571 319 607</position>
			</node>
			<node id="G">
				<name>G</name>
				<interior color="e5f6f7" />
				<outline color="0000bb" />
				<font color="000000" name="Arial" size="8" />
				<position>324 103 400 139</position>
			</node>
			<node id="I">
				<name>I</name>
				<interior color="e5f6f7" />
				<outline color="0000bb" />
				<font color="000000" name="Arial" size="8" />
				<position>74 143 150 179</position>
			</node>
			<node id="J">
				<name>J</name>
				<interior color="e5f6f7" />
				<outline color="0000bb" />
				<font color="000000" name="Arial" size="8" />
				<position>655 168 731 204</position>
			</node>
			<node id="N">
				<name>N</name>
				<interior color="e5f6f7" />
				<outline color="0000bb" />
				<font color="000000" name="Arial" size="8" />
				<position>476 159 552 195</position>
			</node>
			<node id="W">
				<name>W</name>
				<interior color="e5f6f7" />
				<outline color="0000bb" />
				<font color="000000" name="Arial" size="8" />
				<position>136 406 212 442</position>
			</node>
			<node id="O">
				<name>O</name>
				<interior color="e5f6f7" />
				<outline color="0000bb" />
				<font color="000000" name="Arial" size="8" />
				<position>245 181 321 217</position>
			</node>
			<node id="Q">
				<name>Q</name>
				<interior color="e5f6f7" />
				<outline color="0000bb" />
				<font color="000000" name="Arial" size="8" />
				<position>123 557 199 593</position>
			</node>
			<node id="R">
				<name>R</name>
				<interior color="e5f6f7" />
				<outline color="0000bb" />
				<font color="000000" name="Arial" size="8" />
				<position>404 574 480 610</position>
			</node>
			<node id="T">
				<name>T</name>
				<interior color="e5f6f7" />
				<outline color="0000bb" />
				<font color="000000" name="Arial" size="8" />
				<position>791 233 867 269</position>
			</node>
			<node id="U">
				<name>U</name>
				<interior color="e5f6f7" />
				<outline color="0000bb" />
				<font color="000000" name="Arial" size="8" />
				<position>273 271 349 307</position>
			</node>
		</genie>
	</extensions>
</smile>
