<?xml version="1.0" encoding="ISO-8859-1"?>
<smile version="1.0" id="Unnamed" numsamples="1000" discsamples="10000">
	<nodes>
		<cpt id="Q">
			<state id="State1" />
			<state id="State2" />
			<state id="State3" />
			<probabilities>0.3391976542716247 0.4279621484739437 0.2328401972544316</probabilities>
		</cpt>
		<cpt id="E">
			<state id="State1" />
			<state id="State2" />
			<state id="State3" />
			<parents>Q</parents>
			<probabilities>0.5211525867714473 0.2028814669286182 0.2759659462999345 0.854977680888612 0.06270113152704246 0.08232118758434548 0.4346498759778668 0.06716275519938943 0.4981873688227437</probabilities>
		</cpt>
		<cpt id="Y">
			<state id="State1" />
			<state id="State2" />
			<state id="State3" />
			<parents>E Q</parents>
			<probabilities>0.4185306190835218 0.5768618580882969 0.004607522828181285 0.005504290108466894 0.08527602395985105 0.909219685931682 0.4386889083991806 0.01199882938249927 0.5493122622183202 0.0002151925973746503 0.3139659995696148 0.6858188078330105 0.01545253863134658 0.1793598233995585 0.8051876379690949 0.2054924242424242 0.7935606060606061 0.0009469696969696969 0.786109792754311 0.004429678848283499 0.2094605283974055 0.7494745691467003 0.216057166876839 0.0344682639764607 0.7929273586110048 0.0897484999361675 0.1173241414528278</probabilities>
		</cpt>
		<cpt id="X">
			<state id="State1" />
			<state id="State2" />
			<state id="State3" />
			<parents>Y</parents>
			<probabilities>0.2898917475045691 0.4404611275130043 0.2696471249824265 0.379925822902179 0.442512749188688 0.1775614279091331 0.4735607291102689 0.4670637069121097 0.05937556397762137</probabilities>
		</cpt>
		<cpt id="W">
			<state id="State1" />
			<state id="State2" />
			<state id="State3" />
			<probabilities>0.0005331200852992137 0.8002132480341196 0.1992536318805811</probabilities>
		</cpt>
		<cpt id="L">
			<state id="State1" />
			<state id="State2" />
			<state id="State3" />
			<parents>W</parents>
			<probabilities>0.08333333333333333 0.8333333333333334 0.08333333333333333 0.0005551854319342661 0.002054186098156784 0.997390628469909 0.0002229654403567447 0.03433667781493869 0.9654403567447046</probabilities>
		</cpt>
		<cpt id="R">
			<state id="State1" />
			<state id="State2" />
			<state id="State3" />
			<parents>L</parents>
			<probabilities>0.8333333333333334 0.08333333333333333 0.08333333333333333 0.09452736318407962 0.1393034825870647 0.7661691542288558 0.1695819878005023 0.4787854323645496 0.3516325798349479</probabilities>
		</cpt>
		<cpt id="M">
			<state id="State1" />
			<state id="State2" />
			<state id="State3" />
			<parents>W R</parents>
			<probabilities>0.3333333333333333 0.3333333333333333 0.3333333333333333 0.3333333333333333 0.3333333333333333 0.3333333333333333 0.9333333333333332 0.03333333333333333 0.03333333333333333 0.38269912010056 0.1142726545537653 0.5030282253456748 0.248424349187708 0.2251712663926405 0.5264043844196515 0.5321175278622088 0.4678318135764945 5.065856129685917e-005 0.0003736920777279521 0.9588938714499252 0.04073243647234678 0.6706276660572821 0.1070993296770262 0.2222730042656917 0.1795966785290629 0.1731909845788849 0.6472123368920522</probabilities>
		</cpt>
		<cpt id="A">
			<state id="State1" />
			<state id="State2" />
			<state id="State3" />
			<parents>X Y M</parents>
			<probabilities>0.3950335161486899 0.5554539914686167 0.04951249238269348 0.03192322757540149 0.1112416764590678 0.8568350959655308 0.4705284552845529 0.3411730545876888 0.1882984901277584 0.01314102564102564 0.9866987179487178 0.0001602564102564102 0.7656167979002625 0.2341207349081365 0.0002624671916010499 0.3792810040416932 0.0002127206977238885 0.6205062752605829 0.6953935925489536 0.263648095157942 0.04095831229310441 7.963051441312311e-005 0.3096830705526358 0.6902372989329511 0.9421992760073586 0.02409352560678892 0.03370719838585247 0.6910790452854161 0.294128323804338 0.01479263091024594 0.1296994629185236 0.6572963089932579 0.2130042280882185 0.8748071674379969 0.01934258929630948 0.1058502432656936 0.4418137465920505 0.2558473238628211 0.3023389295451284 0.04181662382176521 0.9441302485004284 0.01405312767780634 0.05574594471098927 0.1297692483436144 0.8144848069453965 0.01505893970252422 0.01505893970252422 0.9698821205949516 0.460200575075391 0.5397292937793674 7.01311452416018e-005 0.7838357523880413 0.1608361245503039 0.05532812306165488 0.0001451800232288037 0.3058943089430894 0.6939605110336818 0.9176779935275081 0.0002022653721682848 0.08211974110032362 0.0001841620626151013 0.9996316758747698 0.0001841620626151013 0.6246628131021194 0.1564547206165703 0.2188824662813102 0.0717745486569793 0.4641127256715103 0.4641127256715103 0.04043392504930966 0.0004930966469428007 0.9590729783037474 0.3043944265809218 0.3043944265809218 0.3912111468381564 0.06699547883271681 0.1335799424578709 0.7994245787094123 0.8989525569932224 0.0006161429451632778 0.1004313000616143</probabilities>
		</cpt>
		<cpt id="B">
			<state id="State1" />
			<state id="State2" />
			<state id="State3" />
			<parents>Y X</parents>
			<probabilities>0.6417717426446815 0.3449725185903653 0.01325573876495312 0.4999468028513672 0.0747951909777636 0.4252580061708693 0.7838025721237401 0.1831769204031978 0.03302050747306222 0.09904413260117959 0.00569452918446207 0.8952613382143584 0.02374716256329667 0.6649205517723067 0.3113322856643968 0.7288946910356832 0.2354221061792864 0.03568320278503046 0.178417174796748 0.08409552845528455 0.7374872967479674 0.8572900566718186 0.1409067490984029 0.001803194229778465 0.9032421479229991 0.01418439716312057 0.08257345491388045</probabilities>
		</cpt>
		<cpt id="C">
			<state id="State1" />
			<state id="State2" />
			<state id="State3" />
			<parents>Y</parents>
			<probabilities>0.4961338394488963 0.2848305918740335 0.2190355686770701 0.4779786740843764 0.01066295781177561 0.5113583681038479 0.03257534741021477 9.023641941887746e-005 0.9673344161703664</probabilities>
		</cpt>
		<cpt id="D">
			<state id="State1" />
			<state id="State2" />
			<state id="State3" />
			<parents>C Y</parents>
			<probabilities>0.6198167563993577 9.445546424860678e-005 0.3800887881363937 0.2314904623343033 0.6941480763013256 0.07436146136437116 0.5992613111726685 0.3748845798707294 0.02585410895660203 0.2933530766699572 0.2578150707469563 0.4488318525830866 0.007246376811594203 0.5942028985507247 0.3985507246376812 0.3333333333333333 0.3333333333333333 0.3333333333333333 0.1504065040650407 0.02909713307659393 0.8204963628583655 0.2408582653369598 0.5060441220912663 0.2530976125717739 0.009266169154228855 0.4030161691542288 0.5877176616915423</probabilities>
		</cpt>
		<cpt id="K">
			<state id="State1" />
			<state id="State2" />
			<state id="State3" />
			<parents>M</parents>
			<probabilities>0.0554177005789909 0.1681436842727165 0.7764386151482925 0.1109110010505778 0.2041122617439592 0.6849767372054629 0.01354462955438169 0.3365840444263849 0.6498713260192334</probabilities>
		</cpt>
		<cpt id="H">
			<state id="State1" />
			<state id="State2" />
			<state id="State3" />
			<parents>K M</parents>
			<probabilities>0.09665955934612651 0.07746979388770434 0.8258706467661691 0.5972034280559314 0.3292737934145241 0.07352277852954443 0.8133333333333332 0.1833333333333334 0.003333333333333333 0.08245490747247598 0.3733895525884282 0.5441555399390958 0.8274509803921568 0.1590686274509804 0.01348039215686275 0.536150234741784 0.2138162307176392 0.2500335345405768 0.3369857454471669 0.3698574544716684 0.2931568000811647 0.1321939818872334 0.8440695296523518 0.02373648846041484 0.2457968598026956 0.04321244963179103 0.7109906905655135</probabilities>
		</cpt>
		<cpt id="S">
			<state id="State1" />
			<state id="State2" />
			<state id="State3" />
			<parents>Y</parents>
			<probabilities>0.2165049908618023 0.1633628567411781 0.6201321523970195 0.5447380621233193 0.4258229021789523 0.02943903569772833 9.023641941887746e-005 0.2656560187691752 0.7342537448114059</probabilities>
		</cpt>
		<cpt id="Z">
			<state id="State1" />
			<state id="State2" />
			<state id="State3" />
			<parents>H S</parents>
			<probabilities>0.40958751393534 0.2771460423634337 0.3132664437012263 0.03843730308758664 0.6083805923125394 0.353182104599874 0.09955605931803156 0.7345801454614149 0.1658637952205535 0.5031041069723018 0.14207258834766 0.3548233046800382 0.01480678945467678 0.7168652943300831 0.2683279162152402 0.02991364421416235 0.867426597582038 0.1026597582037997 0.2343333333333333 0.1353333333333333 0.6303333333333333 0.004711425206124852 0.486286387346458 0.5090021874474171 0.02715420813083391 0.7165779526344209 0.2562678392347451</probabilities>
		</cpt>
		<cpt id="F">
			<state id="State1" />
			<state id="State2" />
			<state id="State3" />
			<parents>Z M</parents>
			<probabilities>0.4794261985654965 0.0003775009437523594 0.5201963004907513 0.1446773530620633 0.01150842581175503 0.8438142211261817 0.0005688282138794084 0.9527872582480091 0.04664391353811149 0.01068292043518154 0.04961331760387994 0.9397037619609386 0.8297224582271311 0.05359671481166808 0.1166808269612008 0.04096622747236105 0.7422383764955324 0.2167953960321066 0.1444800855386261 0.6641272387062284 0.1913926757551457 0.03175990675990676 0.08682983682983682 0.8814102564102563 0.6803061934585943 0.07529575504523313 0.2443980514961726</probabilities>
		</cpt>
		<cpt id="G">
			<state id="State1" />
			<state id="State2" />
			<state id="State3" />
			<parents>K D</parents>
			<probabilities>0.2404129793510325 0.08112094395280237 0.6784660766961652 0.1697994987468671 0.7957393483709273 0.03446115288220551 0.04969696969696969 0.06606060606060606 0.8842424242424242 0.0003490401396160558 0.7354275741710297 0.2642233856893543 0.1572360303190552 0.1286797109113344 0.7140842587696105 0.03358106248279659 0.966281310211946 0.0001376273052573631 0.9114978902953586 0.05706751054852321 0.03143459915611814 0.5530010303967027 0.2121973209685729 0.2348016486347244 0.2061778772322408 0.7191435215655303 0.07467860120222895</probabilities>
		</cpt>
		<cpt id="I">
			<state id="State1" />
			<state id="State2" />
			<state id="State3" />
			<parents>Z</parents>
			<probabilities>0.1543859649122807 0.8057017543859649 0.03991228070175439 0.240349394195548 0.7595801634263173 7.044237813468582e-005 0.3119509365158296 0.1911155312448202 0.4969335322393502</probabilities>
		</cpt>
		<cpt id="J">
			<state id="State1" />
			<state id="State2" />
			<state id="State3" />
			<parents>Y M</parents>
			<probabilities>0.9898246904499203 0.01005271545911487 0.0001225940909648155 0.1164831657890538 0.1207914472634434 0.7627253869475028 0.1250903832248735 0.5467823571945047 0.3281272595806218 0.0360668185269552 0.3384586180713743 0.6254745634016705 0.0002517623363544814 0.4760825780463243 0.5236656596173213 0.335764451647758 0.6566720691518099 0.007563479200432198 0.03167836843864928 0.002340354396522902 0.9659812771648279 0.6342564102564103 0.2382564102564103 0.1274871794871795 0.3185050294831773 0.6533125216788068 0.02818244883801596</probabilities>
		</cpt>
		<cpt id="N">
			<state id="State1" />
			<state id="State2" />
			<state id="State3" />
			<parents>K</parents>
			<probabilities>0.867737003058104 0.1246177370030581 0.00764525993883792 0.00360668185269552 0.8287775246772967 0.1676157934700076 0.03000062762819306 0.3135630452519927 0.6564363271198143</probabilities>
		</cpt>
		<cpt id="O">
			<state id="State1" />
			<state id="State2" />
			<state id="State3" />
			<parents>W</parents>
			<probabilities>0.08333333333333333 0.08333333333333333 0.8333333333333334 0.5451920941594493 0.4387630468576504 0.01604485898290029 0.8390189520624304 0.1085841694537347 0.05239687848383501</probabilities>
		</cpt>
		<cpt id="P">
			<state id="State1" />
			<state id="State2" />
			<state id="State3" />
			<parents>L Y</parents>
			<probabilities>0.03333333333333333 0.03333333333333333 0.9333333333333332 0.3333333333333333 0.3333333333333333 0.3333333333333333 0.3333333333333333 0.3333333333333333 0.3333333333333333 0.0045662100456621 0.8675799086757992 0.1278538812785388 0.1696969696969697 0.8242424242424242 0.006060606060606061 0.0045662100456621 0.0045662100456621 0.9908675799086758 0.03205310573731627 0.9678994784257943 4.74158368895211e-005 7.828401440425864e-005 0.07828401440425865 0.9216377015813371 0.1144924903100775 0.09895833333333334 0.7865491763565892</probabilities>
		</cpt>
		<cpt id="T">
			<state id="State1" />
			<state id="State2" />
			<state id="State3" />
			<parents>Y L I</parents>
			<probabilities>0.9761904761904763 0.0119047619047619 0.0119047619047619 0.3333333333333333 0.3333333333333333 0.3333333333333333 0.3333333333333333 0.3333333333333333 0.3333333333333333 0.9761904761904763 0.0119047619047619 0.0119047619047619 0.002044989775051125 0.3333333333333333 0.6646216768916156 0.0119047619047619 0.9761904761904763 0.0119047619047619 0.4414680585647692 0.1542905915566936 0.4042413498785372 0.05146181005359547 0.9464553328761208 0.002082857070283726 0.07485582468281429 0.1122260668973472 0.8129181084198384 0.3333333333333333 0.3333333333333333 0.3333333333333333 0.3333333333333333 0.3333333333333333 0.3333333333333333 0.3333333333333333 0.3333333333333333 0.3333333333333333 0.3333333333333333 0.3333333333333333 0.3333333333333333 0.002450980392156862 0.3995098039215686 0.5980392156862745 0.0119047619047619 0.0119047619047619 0.9761904761904763 0.09409282700421941 0.2222573839662447 0.6836497890295359 0.3283588964119571 0.1157017180231219 0.5559393855649212 0.465853316505399 0.3522647595007713 0.1818819239938298 0.3333333333333333 0.3333333333333333 0.3333333333333333 0.3333333333333333 0.3333333333333333 0.3333333333333333 0.3333333333333333 0.3333333333333333 0.3333333333333333 0.9761904761904763 0.0119047619047619 0.0119047619047619 0.9938837920489296 0.003058103975535168 0.003058103975535168 0.6626016260162601 0.004065040650406504 0.3333333333333333 3.869669530222119e-005 0.04705518148750097 0.952906121817197 0.01578418013107521 0.7713321653364479 0.2128836545324768 0.5873467978594855 0.3915933022613499 0.02105989987916451</probabilities>
		</cpt>
		<cpt id="U">
			<state id="State1" />
			<state id="State2" />
			<state id="State3" />
			<parents>I M</parents>
			<probabilities>0.1507125154894672 0.1298017348203222 0.7194857496902106 0.3595342066957788 0.3595342066957788 0.2809315866084425 0.4475586109642165 0.3618896527410541 0.1905517362947294 0.8115261751091988 0.1884086315926723 6.519329812895235e-005 0.008120995380718225 0.1992251527343168 0.7926538518849651 0.05598025163242555 0.7676381589425068 0.1763815894250677 0.04535336672231497 0.007790762381747356 0.9468558708959376 0.5688282138794084 0.4152445961319681 0.01592718998862343 0.02092904543134252 0.9788157223072996 0.0002552322613578356</probabilities>
		</cpt>
		<cpt id="V">
			<state id="State1" />
			<state id="State2" />
			<state id="State3" />
			<parents>H</parents>
			<probabilities>0.9001400560224089 0.07072829131652661 0.02913165266106442 0.7409197967026155 0.2187926118755423 0.04028759142184207 0.8062174746644755 0.1615995617639003 0.03218296357162421</probabilities>
		</cpt>
	</nodes>
	<extensions>
		<genie version="1.0" app="GeNIe 2.0.5079.0" name="pgmpro2" faultnameformat="nodestate">
			<node id="A">
				<name>A</name>
				<interior color="e5f6f7" />
				<outline color="000080" />
				<font color="000000" name="Arial" size="8" />
				<position>394 10 466 58</position>
			</node>
			<node id="B">
				<name>B</name>
				<interior color="e5f6f7" />
				<outline color="000080" />
				<font color="000000" name="Arial" size="8" />
				<position>394 74 466 122</position>
			</node>
			<node id="C">
				<name>C</name>
				<interior color="e5f6f7" />
				<outline color="000080" />
				<font color="000000" name="Arial" size="8" />
				<position>298 10 370 58</position>
			</node>
			<node id="D">
				<name>D</name>
				<interior color="e5f6f7" />
				<outline color="000080" />
				<font color="000000" name="Arial" size="8" />
				<position>394 138 466 186</position>
			</node>
			<node id="E">
				<name>E</name>
				<interior color="e5f6f7" />
				<outline color="000080" />
				<font color="000000" name="Arial" size="8" />
				<position>106 10 178 58</position>
			</node>
			<node id="F">
				<name>F</name>
				<interior color="e5f6f7" />
				<outline color="000080" />
				<font color="000000" name="Arial" size="8" />
				<position>682 10 754 58</position>
			</node>
			<node id="G">
				<name>G</name>
				<interior color="e5f6f7" />
				<outline color="000080" />
				<font color="000000" name="Arial" size="8" />
				<position>490 10 562 58</position>
			</node>
			<node id="H">
				<name>H</name>
				<interior color="e5f6f7" />
				<outline color="000080" />
				<font color="000000" name="Arial" size="8" />
				<position>490 74 562 122</position>
			</node>
			<node id="I">
				<name>I</name>
				<interior color="e5f6f7" />
				<outline color="000080" />
				<font color="000000" name="Arial" size="8" />
				<position>682 74 754 122</position>
			</node>
			<node id="J">
				<name>J</name>
				<interior color="e5f6f7" />
				<outline color="000080" />
				<font color="000000" name="Arial" size="8" />
				<position>394 202 466 250</position>
			</node>
			<node id="K">
				<name>K</name>
				<interior color="e5f6f7" />
				<outline color="000080" />
				<font color="000000" name="Arial" size="8" />
				<position>394 266 466 314</position>
			</node>
			<node id="L">
				<name>L</name>
				<interior color="e5f6f7" />
				<outline color="000080" />
				<font color="000000" name="Arial" size="8" />
				<position>106 74 178 122</position>
			</node>
			<node id="M">
				<name>M</name>
				<interior color="e5f6f7" />
				<outline color="000080" />
				<font color="000000" name="Arial" size="8" />
				<position>298 74 370 122</position>
			</node>
			<node id="N">
				<name>N</name>
				<interior color="e5f6f7" />
				<outline color="000080" />
				<font color="000000" name="Arial" size="8" />
				<position>490 138 562 186</position>
			</node>
			<node id="O">
				<name>O</name>
				<interior color="e5f6f7" />
				<outline color="000080" />
				<font color="000000" name="Arial" size="8" />
				<position>106 138 178 186</position>
			</node>
			<node id="P">
				<name>P</name>
				<interior color="e5f6f7" />
				<outline color="000080" />
				<font color="000000" name="Arial" size="8" />
				<position>298 138 370 186</position>
			</node>
			<node id="Q">
				<name>Q</name>
				<interior color="e5f6f7" />
				<outline color="000080" />
				<font color="000000" name="Arial" size="8" />
				<position>10 10 82 58</position>
			</node>
			<node id="R">
				<name>R</name>
				<interior color="e5f6f7" />
				<outline color="000080" />
				<font color="000000" name="Arial" size="8" />
				<position>202 10 274 58</position>
			</node>
			<node id="S">
				<name>S</name>
				<interior color="e5f6f7" />
				<outline color="000080" />
				<font color="000000" name="Arial" size="8" />
				<position>298 202 370 250</position>
			</node>
			<node id="T">
				<name>T</name>
				<interior color="e5f6f7" />
				<outline color="000080" />
				<font color="000000" name="Arial" size="8" />
				<position>778 10 850 58</position>
			</node>
			<node id="U">
				<name>U</name>
				<interior color="e5f6f7" />
				<outline color="000080" />
				<font color="000000" name="Arial" size="8" />
				<position>778 74 850 122</position>
			</node>
			<node id="V">
				<name>V</name>
				<interior color="e5f6f7" />
				<outline color="000080" />
				<font color="000000" name="Arial" size="8" />
				<position>586 10 658 58</position>
			</node>
			<node id="W">
				<name>W</name>
				<interior color="e5f6f7" />
				<outline color="000080" />
				<font color="000000" name="Arial" size="8" />
				<position>10 74 82 122</position>
			</node>
			<node id="X">
				<name>X</name>
				<interior color="e5f6f7" />
				<outline color="000080" />
				<font color="000000" name="Arial" size="8" />
				<position>298 266 370 314</position>
			</node>
			<node id="Y">
				<name>Y</name>
				<interior color="e5f6f7" />
				<outline color="000080" />
				<font color="000000" name="Arial" size="8" />
				<position>202 74 274 122</position>
			</node>
			<node id="Z">
				<name>Z</name>
				<interior color="e5f6f7" />
				<outline color="000080" />
				<font color="000000" name="Arial" size="8" />
				<position>586 74 658 122</position>
			</node>
		</genie>
	</extensions>
</smile>
